digraph Tree {
node [shape=box] ;
0 [label="X[101] <= 2.0\ngini = 0.9\nsamples = 2000\nvalue = [200, 200, 200, 200, 200, 200, 200, 200, 200, 200]"] ;
1 [label="X[461] <= 2.5\ngini = 0.895\nsamples = 1809\nvalue = [195, 197, 161, 193, 198, 195, 70, 200, 200, 200]"] ;
0 -> 1 [labeldistance=2.5, labelangle=45, headlabel="True"] ;
2 [label="X[455] <= 24.5\ngini = 0.825\nsamples = 734\nvalue = [191, 5, 24, 134, 26, 128, 21, 134, 12, 59]"] ;
1 -> 2 ;
3 [label="X[377] <= 9.0\ngini = 0.811\nsamples = 500\nvalue = [23, 5, 17, 120, 14, 114, 17, 125, 12, 53]"] ;
2 -> 3 ;
4 [label="X[155] <= 7.0\ngini = 0.594\nsamples = 186\nvalue = [16, 2, 10, 8, 3, 16, 8, 115, 0, 8]"] ;
3 -> 4 ;
5 [label="X[541] <= 6.5\ngini = 0.337\nsamples = 142\nvalue = [1, 0, 3, 1, 3, 7, 6, 115, 0, 6]"] ;
4 -> 5 ;
6 [label="X[431] <= 20.0\ngini = 0.192\nsamples = 127\nvalue = [0, 0, 2, 0, 1, 3, 2, 114, 0, 5]"] ;
5 -> 6 ;
7 [label="gini = 0.082\nsamples = 118\nvalue = [0, 0, 2, 0, 0, 1, 0, 113, 0, 2]"] ;
6 -> 7 ;
8 [label="gini = 0.765\nsamples = 9\nvalue = [0, 0, 0, 0, 1, 2, 2, 1, 0, 3]"] ;
6 -> 8 ;
9 [label="X[320] <= 235.0\ngini = 0.818\nsamples = 15\nvalue = [1, 0, 1, 1, 2, 4, 4, 1, 0, 1]"] ;
5 -> 9 ;
10 [label="gini = 0.76\nsamples = 10\nvalue = [1, 0, 1, 0, 2, 0, 4, 1, 0, 1]"] ;
9 -> 10 ;
11 [label="gini = 0.32\nsamples = 5\nvalue = [0, 0, 0, 1, 0, 4, 0, 0, 0, 0]"] ;
9 -> 11 ;
12 [label="X[380] <= 10.0\ngini = 0.785\nsamples = 44\nvalue = [15, 2, 7, 7, 0, 9, 2, 0, 0, 2]"] ;
4 -> 12 ;
13 [label="X[546] <= 146.5\ngini = 0.449\nsamples = 21\nvalue = [15, 0, 4, 1, 0, 0, 0, 0, 0, 1]"] ;
12 -> 13 ;
14 [label="gini = 0.215\nsamples = 17\nvalue = [15, 0, 0, 1, 0, 0, 0, 0, 0, 1]"] ;
13 -> 14 ;
15 [label="gini = 0.0\nsamples = 4\nvalue = [0, 0, 4, 0, 0, 0, 0, 0, 0, 0]"] ;
13 -> 15 ;
16 [label="X[295] <= 187.0\ngini = 0.745\nsamples = 23\nvalue = [0, 2, 3, 6, 0, 9, 2, 0, 0, 1]"] ;
12 -> 16 ;
17 [label="gini = 0.691\nsamples = 18\nvalue = [0, 2, 3, 1, 0, 9, 2, 0, 0, 1]"] ;
16 -> 17 ;
18 [label="gini = 0.0\nsamples = 5\nvalue = [0, 0, 0, 5, 0, 0, 0, 0, 0, 0]"] ;
16 -> 18 ;
19 [label="X[318] <= 73.5\ngini = 0.749\nsamples = 314\nvalue = [7, 3, 7, 112, 11, 98, 9, 10, 12, 45]"] ;
3 -> 19 ;
20 [label="X[653] <= 23.5\ngini = 0.6\nsamples = 160\nvalue = [5, 2, 6, 97, 4, 25, 5, 2, 9, 5]"] ;
19 -> 20 ;
21 [label="X[539] <= 80.5\ngini = 0.82\nsamples = 71\nvalue = [3, 2, 4, 19, 4, 20, 5, 2, 7, 5]"] ;
20 -> 21 ;
22 [label="gini = 0.844\nsamples = 51\nvalue = [3, 2, 4, 16, 4, 4, 5, 2, 6, 5]"] ;
21 -> 22 ;
23 [label="gini = 0.335\nsamples = 20\nvalue = [0, 0, 0, 3, 0, 16, 0, 0, 1, 0]"] ;
21 -> 23 ;
24 [label="X[191] <= 26.0\ngini = 0.227\nsamples = 89\nvalue = [2, 0, 2, 78, 0, 5, 0, 0, 2, 0]"] ;
20 -> 24 ;
25 [label="gini = 0.117\nsamples = 82\nvalue = [2, 0, 0, 77, 0, 1, 0, 0, 2, 0]"] ;
24 -> 25 ;
26 [label="gini = 0.571\nsamples = 7\nvalue = [0, 0, 2, 1, 0, 4, 0, 0, 0, 0]"] ;
24 -> 26 ;
27 [label="X[298] <= 7.0\ngini = 0.692\nsamples = 154\nvalue = [2, 1, 1, 15, 7, 73, 4, 8, 3, 40]"] ;
19 -> 27 ;
28 [label="X[187] <= 1.5\ngini = 0.39\nsamples = 88\nvalue = [0, 1, 0, 4, 4, 68, 4, 0, 0, 7]"] ;
27 -> 28 ;
29 [label="gini = 0.743\nsamples = 31\nvalue = [0, 1, 0, 3, 4, 13, 4, 0, 0, 6]"] ;
28 -> 29 ;
30 [label="gini = 0.068\nsamples = 57\nvalue = [0, 0, 0, 1, 0, 55, 0, 0, 0, 1]"] ;
28 -> 30 ;
31 [label="X[567] <= 9.0\ngini = 0.697\nsamples = 66\nvalue = [2, 0, 1, 11, 3, 5, 0, 8, 3, 33]"] ;
27 -> 31 ;
32 [label="gini = 0.501\nsamples = 47\nvalue = [1, 0, 0, 0, 3, 1, 0, 8, 2, 32]"] ;
31 -> 32 ;
33 [label="gini = 0.609\nsamples = 19\nvalue = [1, 0, 1, 11, 0, 4, 0, 0, 1, 1]"] ;
31 -> 33 ;
34 [label="X[408] <= 66.0\ngini = 0.471\nsamples = 234\nvalue = [168, 0, 7, 14, 12, 14, 4, 9, 0, 6]"] ;
2 -> 34 ;
35 [label="X[626] <= 2.5\ngini = 0.237\nsamples = 187\nvalue = [163, 0, 5, 3, 2, 1, 3, 7, 0, 3]"] ;
34 -> 35 ;
36 [label="X[515] <= 62.5\ngini = 0.812\nsamples = 24\nvalue = [6, 0, 3, 1, 2, 1, 2, 7, 0, 2]"] ;
35 -> 36 ;
37 [label="X[428] <= 243.5\ngini = 0.561\nsamples = 14\nvalue = [6, 0, 0, 1, 0, 0, 0, 7, 0, 0]"] ;
36 -> 37 ;
38 [label="gini = 0.406\nsamples = 8\nvalue = [6, 0, 0, 1, 0, 0, 0, 1, 0, 0]"] ;
37 -> 38 ;
39 [label="gini = 0.0\nsamples = 6\nvalue = [0, 0, 0, 0, 0, 0, 0, 6, 0, 0]"] ;
37 -> 39 ;
40 [label="X[209] <= 212.5\ngini = 0.78\nsamples = 10\nvalue = [0, 0, 3, 0, 2, 1, 2, 0, 0, 2]"] ;
36 -> 40 ;
41 [label="gini = 0.735\nsamples = 7\nvalue = [0, 0, 0, 0, 2, 1, 2, 0, 0, 2]"] ;
40 -> 41 ;
42 [label="gini = 0.0\nsamples = 3\nvalue = [0, 0, 3, 0, 0, 0, 0, 0, 0, 0]"] ;
40 -> 42 ;
43 [label="X[460] <= 54.0\ngini = 0.072\nsamples = 163\nvalue = [157, 0, 2, 2, 0, 0, 1, 0, 0, 1]"] ;
35 -> 43 ;
44 [label="X[122] <= 203.5\ngini = 0.037\nsamples = 160\nvalue = [157, 0, 0, 1, 0, 0, 1, 0, 0, 1]"] ;
43 -> 44 ;
45 [label="gini = 0.025\nsamples = 159\nvalue = [157, 0, 0, 1, 0, 0, 0, 0, 0, 1]"] ;
44 -> 45 ;
46 [label="gini = 0.0\nsamples = 1\nvalue = [0, 0, 0, 0, 0, 0, 1, 0, 0, 0]"] ;
44 -> 46 ;
47 [label="X[298] <= 188.0\ngini = 0.444\nsamples = 3\nvalue = [0, 0, 2, 1, 0, 0, 0, 0, 0, 0]"] ;
43 -> 47 ;
48 [label="gini = 0.0\nsamples = 1\nvalue = [0, 0, 0, 1, 0, 0, 0, 0, 0, 0]"] ;
47 -> 48 ;
49 [label="gini = 0.0\nsamples = 2\nvalue = [0, 0, 2, 0, 0, 0, 0, 0, 0, 0]"] ;
47 -> 49 ;
50 [label="X[326] <= 1.0\ngini = 0.804\nsamples = 47\nvalue = [5, 0, 2, 11, 10, 13, 1, 2, 0, 3]"] ;
34 -> 50 ;
51 [label="X[378] <= 96.5\ngini = 0.484\nsamples = 17\nvalue = [1, 0, 1, 0, 1, 12, 1, 1, 0, 0]"] ;
50 -> 51 ;
52 [label="X[456] <= 135.5\ngini = 0.8\nsamples = 5\nvalue = [1, 0, 1, 0, 1, 0, 1, 1, 0, 0]"] ;
51 -> 52 ;
53 [label="gini = 0.0\nsamples = 1\nvalue = [1, 0, 0, 0, 0, 0, 0, 0, 0, 0]"] ;
52 -> 53 ;
54 [label="gini = 0.75\nsamples = 4\nvalue = [0, 0, 1, 0, 1, 0, 1, 1, 0, 0]"] ;
52 -> 54 ;
55 [label="gini = 0.0\nsamples = 12\nvalue = [0, 0, 0, 0, 0, 12, 0, 0, 0, 0]"] ;
51 -> 55 ;
56 [label="X[297] <= 151.0\ngini = 0.744\nsamples = 30\nvalue = [4, 0, 1, 11, 9, 1, 0, 1, 0, 3]"] ;
50 -> 56 ;
57 [label="gini = 0.0\nsamples = 9\nvalue = [0, 0, 0, 0, 9, 0, 0, 0, 0, 0]"] ;
56 -> 57 ;
58 [label="X[351] <= 244.5\ngini = 0.662\nsamples = 21\nvalue = [4, 0, 1, 11, 0, 1, 0, 1, 0, 3]"] ;
56 -> 58 ;
59 [label="gini = 0.716\nsamples = 9\nvalue = [4, 0, 1, 0, 0, 1, 0, 1, 0, 2]"] ;
58 -> 59 ;
60 [label="gini = 0.153\nsamples = 12\nvalue = [0, 0, 0, 11, 0, 0, 0, 0, 0, 1]"] ;
58 -> 60 ;
61 [label="X[401] <= 1.5\ngini = 0.866\nsamples = 1075\nvalue = [4, 192, 137, 59, 172, 67, 49, 66, 188, 141]"] ;
1 -> 61 ;
62 [label="X[319] <= 3.5\ngini = 0.8\nsamples = 597\nvalue = [1, 192, 98, 34, 17, 21, 14, 62, 136, 22]"] ;
61 -> 62 ;
63 [label="X[206] <= 3.0\ngini = 0.723\nsamples = 408\nvalue = [1, 185, 91, 28, 13, 4, 9, 43, 24, 10]"] ;
62 -> 63 ;
64 [label="X[378] <= 143.0\ngini = 0.538\nsamples = 278\nvalue = [1, 184, 33, 3, 9, 3, 7, 13, 21, 4]"] ;
63 -> 64 ;
65 [label="X[567] <= 7.5\ngini = 0.764\nsamples = 60\nvalue = [0, 3, 24, 0, 9, 3, 3, 12, 2, 4]"] ;
64 -> 65 ;
66 [label="gini = 0.768\nsamples = 33\nvalue = [0, 3, 5, 0, 9, 0, 1, 11, 0, 4]"] ;
65 -> 66 ;
67 [label="gini = 0.48\nsamples = 27\nvalue = [0, 0, 19, 0, 0, 3, 2, 1, 2, 0]"] ;
65 -> 67 ;
68 [label="X[540] <= 196.0\ngini = 0.301\nsamples = 218\nvalue = [1, 181, 9, 3, 0, 0, 4, 1, 19, 0]"] ;
64 -> 68 ;
69 [label="gini = 0.172\nsamples = 197\nvalue = [0, 179, 4, 2, 0, 0, 4, 1, 7, 0]"] ;
68 -> 69 ;
70 [label="gini = 0.603\nsamples = 21\nvalue = [1, 2, 5, 1, 0, 0, 0, 0, 12, 0]"] ;
68 -> 70 ;
71 [label="X[684] <= 11.0\ngini = 0.707\nsamples = 130\nvalue = [0, 1, 58, 25, 4, 1, 2, 30, 3, 6]"] ;
63 -> 71 ;
72 [label="X[343] <= 31.0\ngini = 0.562\nsamples = 89\nvalue = [0, 1, 57, 10, 4, 0, 2, 8, 1, 6]"] ;
71 -> 72 ;
73 [label="gini = 0.396\nsamples = 75\nvalue = [0, 1, 57, 10, 0, 0, 0, 7, 0, 0]"] ;
72 -> 73 ;
74 [label="gini = 0.704\nsamples = 14\nvalue = [0, 0, 0, 0, 4, 0, 2, 1, 1, 6]"] ;
72 -> 74 ;
75 [label="X[518] <= 46.5\ngini = 0.575\nsamples = 41\nvalue = [0, 0, 1, 15, 0, 1, 0, 22, 2, 0]"] ;
71 -> 75 ;
76 [label="gini = 0.36\nsamples = 19\nvalue = [0, 0, 0, 15, 0, 1, 0, 1, 2, 0]"] ;
75 -> 76 ;
77 [label="gini = 0.087\nsamples = 22\nvalue = [0, 0, 1, 0, 0, 0, 0, 21, 0, 0]"] ;
75 -> 77 ;
78 [label="X[406] <= 157.0\ngini = 0.622\nsamples = 189\nvalue = [0, 7, 7, 6, 4, 17, 5, 19, 112, 12]"] ;
62 -> 78 ;
79 [label="X[409] <= 1.5\ngini = 0.775\nsamples = 51\nvalue = [0, 1, 4, 1, 2, 11, 1, 19, 4, 8]"] ;
78 -> 79 ;
80 [label="X[155] <= 188.5\ngini = 0.367\nsamples = 14\nvalue = [0, 1, 0, 1, 0, 11, 0, 0, 1, 0]"] ;
79 -> 80 ;
81 [label="gini = 0.0\nsamples = 11\nvalue = [0, 0, 0, 0, 0, 11, 0, 0, 0, 0]"] ;
80 -> 81 ;
82 [label="gini = 0.667\nsamples = 3\nvalue = [0, 1, 0, 1, 0, 0, 0, 0, 1, 0]"] ;
80 -> 82 ;
83 [label="X[268] <= 155.5\ngini = 0.668\nsamples = 37\nvalue = [0, 0, 4, 0, 2, 0, 1, 19, 3, 8]"] ;
79 -> 83 ;
84 [label="gini = 0.754\nsamples = 17\nvalue = [0, 0, 2, 0, 2, 0, 1, 2, 3, 7]"] ;
83 -> 84 ;
85 [label="gini = 0.265\nsamples = 20\nvalue = [0, 0, 2, 0, 0, 0, 0, 17, 0, 1]"] ;
83 -> 85 ;
86 [label="X[293] <= 240.5\ngini = 0.38\nsamples = 138\nvalue = [0, 6, 3, 5, 2, 6, 4, 0, 108, 4]"] ;
78 -> 86 ;
87 [label="X[98] <= 40.5\ngini = 0.212\nsamples = 114\nvalue = [0, 0, 3, 1, 2, 2, 4, 0, 101, 1]"] ;
86 -> 87 ;
88 [label="gini = 0.155\nsamples = 110\nvalue = [0, 0, 3, 1, 2, 2, 0, 0, 101, 1]"] ;
87 -> 88 ;
89 [label="gini = 0.0\nsamples = 4\nvalue = [0, 0, 0, 0, 0, 0, 4, 0, 0, 0]"] ;
87 -> 89 ;
90 [label="X[458] <= 153.0\ngini = 0.781\nsamples = 24\nvalue = [0, 6, 0, 4, 0, 4, 0, 0, 7, 3]"] ;
86 -> 90 ;
91 [label="gini = 0.759\nsamples = 18\nvalue = [0, 6, 0, 4, 0, 4, 0, 0, 1, 3]"] ;
90 -> 91 ;
92 [label="gini = 0.0\nsamples = 6\nvalue = [0, 0, 0, 0, 0, 0, 0, 0, 6, 0]"] ;
90 -> 92 ;
93 [label="X[211] <= 21.5\ngini = 0.797\nsamples = 478\nvalue = [3, 0, 39, 25, 155, 46, 35, 4, 52, 119]"] ;
61 -> 93 ;
94 [label="X[437] <= 53.0\ngini = 0.515\nsamples = 195\nvalue = [0, 0, 7, 2, 132, 23, 20, 2, 4, 5]"] ;
93 -> 94 ;
95 [label="X[380] <= 22.5\ngini = 0.702\nsamples = 41\nvalue = [0, 0, 2, 1, 5, 18, 12, 1, 1, 1]"] ;
94 -> 95 ;
96 [label="X[495] <= 10.0\ngini = 0.371\nsamples = 23\nvalue = [0, 0, 2, 1, 2, 18, 0, 0, 0, 0]"] ;
95 -> 96 ;
97 [label="gini = 0.0\nsamples = 18\nvalue = [0, 0, 0, 0, 0, 18, 0, 0, 0, 0]"] ;
96 -> 97 ;
98 [label="gini = 0.64\nsamples = 5\nvalue = [0, 0, 2, 1, 2, 0, 0, 0, 0, 0]"] ;
96 -> 98 ;
99 [label="X[573] <= 92.0\ngini = 0.519\nsamples = 18\nvalue = [0, 0, 0, 0, 3, 0, 12, 1, 1, 1]"] ;
95 -> 99 ;
100 [label="gini = 0.56\nsamples = 5\nvalue = [0, 0, 0, 0, 3, 0, 0, 1, 0, 1]"] ;
99 -> 100 ;
101 [label="gini = 0.142\nsamples = 13\nvalue = [0, 0, 0, 0, 0, 0, 12, 0, 1, 0]"] ;
99 -> 101 ;
102 [label="X[126] <= 2.0\ngini = 0.314\nsamples = 154\nvalue = [0, 0, 5, 1, 127, 5, 8, 1, 3, 4]"] ;
94 -> 102 ;
103 [label="X[267] <= 111.5\ngini = 0.187\nsamples = 140\nvalue = [0, 0, 2, 0, 126, 5, 2, 1, 0, 4]"] ;
102 -> 103 ;
104 [label="gini = 0.118\nsamples = 130\nvalue = [0, 0, 2, 0, 122, 3, 2, 1, 0, 0]"] ;
103 -> 104 ;
105 [label="gini = 0.64\nsamples = 10\nvalue = [0, 0, 0, 0, 4, 2, 0, 0, 0, 4]"] ;
103 -> 105 ;
106 [label="X[235] <= 155.0\ngini = 0.714\nsamples = 14\nvalue = [0, 0, 3, 1, 1, 0, 6, 0, 3, 0]"] ;
102 -> 106 ;
107 [label="gini = 0.688\nsamples = 8\nvalue = [0, 0, 3, 1, 1, 0, 0, 0, 3, 0]"] ;
106 -> 107 ;
108 [label="gini = 0.0\nsamples = 6\nvalue = [0, 0, 0, 0, 0, 0, 6, 0, 0, 0]"] ;
106 -> 108 ;
109 [label="X[541] <= 8.5\ngini = 0.773\nsamples = 283\nvalue = [3, 0, 32, 23, 23, 23, 15, 2, 48, 114]"] ;
93 -> 109 ;
110 [label="X[155] <= 1.0\ngini = 0.63\nsamples = 194\nvalue = [0, 0, 5, 22, 22, 15, 4, 2, 12, 112]"] ;
109 -> 110 ;
111 [label="X[349] <= 147.0\ngini = 0.423\nsamples = 140\nvalue = [0, 0, 3, 13, 9, 4, 1, 2, 3, 105]"] ;
110 -> 111 ;
112 [label="gini = 0.294\nsamples = 122\nvalue = [0, 0, 3, 4, 8, 3, 0, 0, 2, 102]"] ;
111 -> 112 ;
113 [label="gini = 0.698\nsamples = 18\nvalue = [0, 0, 0, 9, 1, 1, 1, 2, 1, 3]"] ;
111 -> 113 ;
114 [label="X[183] <= 226.5\ngini = 0.824\nsamples = 54\nvalue = [0, 0, 2, 9, 13, 11, 3, 0, 9, 7]"] ;
110 -> 114 ;
115 [label="gini = 0.337\nsamples = 14\nvalue = [0, 0, 0, 0, 11, 0, 0, 0, 3, 0]"] ;
114 -> 115 ;
116 [label="gini = 0.81\nsamples = 40\nvalue = [0, 0, 2, 9, 2, 11, 3, 0, 6, 7]"] ;
114 -> 116 ;
117 [label="X[317] <= 7.0\ngini = 0.719\nsamples = 89\nvalue = [3, 0, 27, 1, 1, 8, 11, 0, 36, 2]"] ;
109 -> 117 ;
118 [label="X[319] <= 37.0\ngini = 0.496\nsamples = 39\nvalue = [1, 0, 27, 1, 0, 2, 4, 0, 4, 0]"] ;
117 -> 118 ;
119 [label="gini = 0.231\nsamples = 31\nvalue = [0, 0, 27, 0, 0, 1, 0, 0, 3, 0]"] ;
118 -> 119 ;
120 [label="gini = 0.688\nsamples = 8\nvalue = [1, 0, 0, 1, 0, 1, 4, 0, 1, 0]"] ;
118 -> 120 ;
121 [label="X[495] <= 27.5\ngini = 0.553\nsamples = 50\nvalue = [2, 0, 0, 0, 1, 6, 7, 0, 32, 2]"] ;
117 -> 121 ;
122 [label="gini = 0.169\nsamples = 33\nvalue = [0, 0, 0, 0, 0, 2, 0, 0, 30, 1]"] ;
121 -> 122 ;
123 [label="gini = 0.74\nsamples = 17\nvalue = [2, 0, 0, 0, 1, 4, 7, 0, 2, 1]"] ;
121 -> 123 ;
124 [label="X[271] <= 1.0\ngini = 0.492\nsamples = 191\nvalue = [5, 3, 39, 7, 2, 5, 130, 0, 0, 0]"] ;
0 -> 124 [labeldistance=2.5, labelangle=-45, headlabel="False"] ;
125 [label="X[296] <= 164.5\ngini = 0.215\nsamples = 146\nvalue = [0, 3, 8, 1, 0, 5, 129, 0, 0, 0]"] ;
124 -> 125 ;
126 [label="X[125] <= 253.5\ngini = 0.099\nsamples = 135\nvalue = [0, 0, 2, 0, 0, 5, 128, 0, 0, 0]"] ;
125 -> 126 ;
127 [label="X[622] <= 20.5\ngini = 0.059\nsamples = 132\nvalue = [0, 0, 2, 0, 0, 2, 128, 0, 0, 0]"] ;
126 -> 127 ;
128 [label="X[611] <= 59.0\ngini = 0.03\nsamples = 130\nvalue = [0, 0, 1, 0, 0, 1, 128, 0, 0, 0]"] ;
127 -> 128 ;
129 [label="X[351] <= 253.5\ngini = 0.015\nsamples = 129\nvalue = [0, 0, 0, 0, 0, 1, 128, 0, 0, 0]"] ;
128 -> 129 ;
130 [label="gini = 0.0\nsamples = 128\nvalue = [0, 0, 0, 0, 0, 0, 128, 0, 0, 0]"] ;
129 -> 130 ;
131 [label="gini = 0.0\nsamples = 1\nvalue = [0, 0, 0, 0, 0, 1, 0, 0, 0, 0]"] ;
129 -> 131 ;
132 [label="gini = 0.0\nsamples = 1\nvalue = [0, 0, 1, 0, 0, 0, 0, 0, 0, 0]"] ;
128 -> 132 ;
133 [label="X[438] <= 162.5\ngini = 0.5\nsamples = 2\nvalue = [0, 0, 1, 0, 0, 1, 0, 0, 0, 0]"] ;
127 -> 133 ;
134 [label="gini = 0.0\nsamples = 1\nvalue = [0, 0, 0, 0, 0, 1, 0, 0, 0, 0]"] ;
133 -> 134 ;
135 [label="gini = 0.0\nsamples = 1\nvalue = [0, 0, 1, 0, 0, 0, 0, 0, 0, 0]"] ;
133 -> 135 ;
136 [label="gini = 0.0\nsamples = 3\nvalue = [0, 0, 0, 0, 0, 3, 0, 0, 0, 0]"] ;
126 -> 136 ;
137 [label="X[126] <= 23.0\ngini = 0.612\nsamples = 11\nvalue = [0, 3, 6, 1, 0, 0, 1, 0, 0, 0]"] ;
125 -> 137 ;
138 [label="X[186] <= 122.0\ngini = 0.56\nsamples = 5\nvalue = [0, 3, 0, 1, 0, 0, 1, 0, 0, 0]"] ;
137 -> 138 ;
139 [label="gini = 0.0\nsamples = 3\nvalue = [0, 3, 0, 0, 0, 0, 0, 0, 0, 0]"] ;
138 -> 139 ;
140 [label="X[462] <= 126.5\ngini = 0.5\nsamples = 2\nvalue = [0, 0, 0, 1, 0, 0, 1, 0, 0, 0]"] ;
138 -> 140 ;
141 [label="gini = 0.0\nsamples = 1\nvalue = [0, 0, 0, 1, 0, 0, 0, 0, 0, 0]"] ;
140 -> 141 ;
142 [label="gini = 0.0\nsamples = 1\nvalue = [0, 0, 0, 0, 0, 0, 1, 0, 0, 0]"] ;
140 -> 142 ;
143 [label="gini = 0.0\nsamples = 6\nvalue = [0, 0, 6, 0, 0, 0, 0, 0, 0, 0]"] ;
137 -> 143 ;
144 [label="X[319] <= 37.5\ngini = 0.493\nsamples = 45\nvalue = [5, 0, 31, 6, 2, 0, 1, 0, 0, 0]"] ;
124 -> 144 ;
145 [label="X[296] <= 149.0\ngini = 0.213\nsamples = 34\nvalue = [0, 0, 30, 3, 1, 0, 0, 0, 0, 0]"] ;
144 -> 145 ;
146 [label="X[341] <= 126.0\ngini = 0.064\nsamples = 30\nvalue = [0, 0, 29, 0, 1, 0, 0, 0, 0, 0]"] ;
145 -> 146 ;
147 [label="gini = 0.0\nsamples = 29\nvalue = [0, 0, 29, 0, 0, 0, 0, 0, 0, 0]"] ;
146 -> 147 ;
148 [label="gini = 0.0\nsamples = 1\nvalue = [0, 0, 0, 0, 1, 0, 0, 0, 0, 0]"] ;
146 -> 148 ;
149 [label="X[154] <= 217.0\ngini = 0.375\nsamples = 4\nvalue = [0, 0, 1, 3, 0, 0, 0, 0, 0, 0]"] ;
145 -> 149 ;
150 [label="gini = 0.0\nsamples = 3\nvalue = [0, 0, 0, 3, 0, 0, 0, 0, 0, 0]"] ;
149 -> 150 ;
151 [label="gini = 0.0\nsamples = 1\nvalue = [0, 0, 1, 0, 0, 0, 0, 0, 0, 0]"] ;
149 -> 151 ;
152 [label="X[350] <= 20.0\ngini = 0.694\nsamples = 11\nvalue = [5, 0, 1, 3, 1, 0, 1, 0, 0, 0]"] ;
144 -> 152 ;
153 [label="X[408] <= 159.5\ngini = 0.278\nsamples = 6\nvalue = [5, 0, 0, 0, 1, 0, 0, 0, 0, 0]"] ;
152 -> 153 ;
154 [label="gini = 0.0\nsamples = 5\nvalue = [5, 0, 0, 0, 0, 0, 0, 0, 0, 0]"] ;
153 -> 154 ;
155 [label="gini = 0.0\nsamples = 1\nvalue = [0, 0, 0, 0, 1, 0, 0, 0, 0, 0]"] ;
153 -> 155 ;
156 [label="X[578] <= 85.0\ngini = 0.56\nsamples = 5\nvalue = [0, 0, 1, 3, 0, 0, 1, 0, 0, 0]"] ;
152 -> 156 ;
157 [label="X[265] <= 127.0\ngini = 0.5\nsamples = 2\nvalue = [0, 0, 1, 0, 0, 0, 1, 0, 0, 0]"] ;
156 -> 157 ;
158 [label="gini = 0.0\nsamples = 1\nvalue = [0, 0, 1, 0, 0, 0, 0, 0, 0, 0]"] ;
157 -> 158 ;
159 [label="gini = 0.0\nsamples = 1\nvalue = [0, 0, 0, 0, 0, 0, 1, 0, 0, 0]"] ;
157 -> 159 ;
160 [label="gini = 0.0\nsamples = 3\nvalue = [0, 0, 0, 3, 0, 0, 0, 0, 0, 0]"] ;
156 -> 160 ;
}
